digraph Tree {
node [shape=box, style="filled, rounded", color="black", fontname="helvetica"] ;
edge [fontname="helvetica"] ;
0 [label="petal length (cm) <= 2.45\nentropy = 1.585\nsamples = 150\nvalue = [50, 50, 50]\nclass = setosa", fillcolor="#ffffff"] ;
1 [label="entropy = 0.0\nsamples = 50\nvalue = [50, 0, 0]\nclass = setosa", fillcolor="#e58139"] ;
0 -> 1 [labeldistance=2.5, labelangle=45, headlabel="True"] ;
2 [label="petal length (cm) <= 4.75\nentropy = 1.0\nsamples = 100\nvalue = [0, 50, 50]\nclass = versicolor", fillcolor="#ffffff"] ;
0 -> 2 [labeldistance=2.5, labelangle=-45, headlabel="False"] ;
3 [label="petal width (cm) <= 1.65\nentropy = 0.154\nsamples = 45\nvalue = [0, 44, 1]\nclass = versicolor", fillcolor="#3de684"] ;
2 -> 3 ;
4 [label="entropy = 0.0\nsamples = 44\nvalue = [0, 44, 0]\nclass = versicolor", fillcolor="#39e581"] ;
3 -> 4 ;
5 [label="entropy = 0.0\nsamples = 1\nvalue = [0, 0, 1]\nclass = virginica", fillcolor="#8139e5"] ;
3 -> 5 ;
6 [label="petal width (cm) <= 1.75\nentropy = 0.497\nsamples = 55\nvalue = [0, 6, 49]\nclass = virginica", fillcolor="#9051e8"] ;
2 -> 6 ;
7 [label="petal width (cm) <= 1.65\nentropy = 0.991\nsamples = 9\nvalue = [0, 5, 4]\nclass = versicolor", fillcolor="#d7fae6"] ;
6 -> 7 ;
8 [label="petal width (cm) <= 1.45\nentropy = 1.0\nsamples = 8\nvalue = [0, 4, 4]\nclass = versicolor", fillcolor="#ffffff"] ;
7 -> 8 ;
9 [label="petal length (cm) <= 5.2\nentropy = 1.0\nsamples = 2\nvalue = [0, 1, 1]\nclass = versicolor", fillcolor="#ffffff"] ;
8 -> 9 ;
10 [label="entropy = 0.0\nsamples = 1\nvalue = [0, 1, 0]\nclass = versicolor", fillcolor="#39e581"] ;
9 -> 10 ;
11 [label="entropy = 0.0\nsamples = 1\nvalue = [0, 0, 1]\nclass = virginica", fillcolor="#8139e5"] ;
9 -> 11 ;
12 [label="petal length (cm) <= 4.95\nentropy = 1.0\nsamples = 6\nvalue = [0, 3, 3]\nclass = versicolor", fillcolor="#ffffff"] ;
8 -> 12 ;
13 [label="entropy = 0.0\nsamples = 2\nvalue = [0, 2, 0]\nclass = versicolor", fillcolor="#39e581"] ;
12 -> 13 ;
14 [label="petal width (cm) <= 1.55\nentropy = 0.811\nsamples = 4\nvalue = [0, 1, 3]\nclass = virginica", fillcolor="#ab7bee"] ;
12 -> 14 ;
15 [label="entropy = 0.0\nsamples = 2\nvalue = [0, 0, 2]\nclass = virginica", fillcolor="#8139e5"] ;
14 -> 15 ;
16 [label="petal length (cm) <= 5.45\nentropy = 1.0\nsamples = 2\nvalue = [0, 1, 1]\nclass = versicolor", fillcolor="#ffffff"] ;
14 -> 16 ;
17 [label="entropy = 0.0\nsamples = 1\nvalue = [0, 1, 0]\nclass = versicolor", fillcolor="#39e581"] ;
16 -> 17 ;
18 [label="entropy = 0.0\nsamples = 1\nvalue = [0, 0, 1]\nclass = virginica", fillcolor="#8139e5"] ;
16 -> 18 ;
19 [label="entropy = 0.0\nsamples = 1\nvalue = [0, 1, 0]\nclass = versicolor", fillcolor="#39e581"] ;
7 -> 19 ;
20 [label="petal width (cm) <= 1.85\nentropy = 0.151\nsamples = 46\nvalue = [0, 1, 45]\nclass = virginica", fillcolor="#843de6"] ;
6 -> 20 ;
21 [label="petal length (cm) <= 4.85\nentropy = 0.414\nsamples = 12\nvalue = [0, 1, 11]\nclass = virginica", fillcolor="#8c4be7"] ;
20 -> 21 ;
22 [label="entropy = 0.918\nsamples = 3\nvalue = [0, 1, 2]\nclass = virginica", fillcolor="#c09cf2"] ;
21 -> 22 ;
23 [label="entropy = 0.0\nsamples = 9\nvalue = [0, 0, 9]\nclass = virginica", fillcolor="#8139e5"] ;
21 -> 23 ;
24 [label="entropy = 0.0\nsamples = 34\nvalue = [0, 0, 34]\nclass = virginica", fillcolor="#8139e5"] ;
20 -> 24 ;
}